net
{
}
node Boot_or_Logon_Initialization_Scripts
{
    states = ("False" "True");
    label = "Boot_or_Logon_Initialization_Scripts";
    position = (200 50);
}
node Replication_Through_Removable_Media
{
    states = ("False" "True");
    label = "Replication_Through_Removable_Media";
    position = (400 100);
}
node Credentials_from_Password_Stores
{
    states = ("False" "True");
    label = "Credentials_from_Password_Stores";
    position = (600 50);
}
node Compromise_Infrastructure
{
    states = ("False" "True");
    label = "Compromise_Infrastructure";
    position = (800 100);
}
node Exploit_Public_Facing_Application
{
    states = ("False" "True");
    label = "Exploit_Public_Facing_Application";
    position = (1000 50);
}
node Modify_Authentication_Process
{
    states = ("False" "True");
    label = "Modify_Authentication_Process";
    position = (1200 100);
}
node Persistence
{
    states = ("False" "True");
    label = "Persistence";
    position = (379 200);
}
node Privilege_Escalation
{
    states = ("False" "True");
    label = "Privilege_Escalation";
    position = (579 250);
}
node Lateral_Movement
{
    states = ("False" "True");
    label = "Lateral_Movement";
    position = (779 200);
}
node Initial_Access
{
    states = ("False" "True");
    label = "Initial_Access";
    position = (979 250);
}
node Credential_Access
{
    states = ("False" "True");
    label = "Credential_Access";
    position = (1179 200);
}
node Resource_Development
{
    states = ("False" "True");
    label = "Resource_Development";
    position = (1379 250);
}
node Defense_Evasion
{
    states = ("False" "True");
    label = "Defense_Evasion";
    position = (323 350);
}
node Risk
{
    states = ("False" "True");
    label = "Risk";
    position = (800 600);
}
potential (Boot_or_Logon_Initialization_Scripts)
{
    data = (0.500000 0.500000);
}
potential (Replication_Through_Removable_Media)
{
    data = (0.500000 0.500000);
}
potential (Credentials_from_Password_Stores)
{
    data = (0.500000 0.500000);
}
potential (Compromise_Infrastructure)
{
    data = (0.500000 0.500000);
}
potential (Exploit_Public_Facing_Application)
{
    data = (0.500000 0.500000);
}
potential (Modify_Authentication_Process)
{
    data = (0.500000 0.500000);
}
potential (Persistence | Boot_or_Logon_Initialization_Scripts Modify_Authentication_Process)
{
    data = (1.000000 0.000000 1.000000 0.000000 1.000000 0.000000 0.000000 1.000000);
}
potential (Privilege_Escalation | Boot_or_Logon_Initialization_Scripts)
{
    data = (1.000000 0.000000 0.000000 1.000000);
}
potential (Lateral_Movement | Replication_Through_Removable_Media)
{
    data = (1.000000 0.000000 0.000000 1.000000);
}
potential (Initial_Access | Replication_Through_Removable_Media Exploit_Public_Facing_Application)
{
    data = (1.000000 0.000000 0.000000 1.000000 0.000000 1.000000 0.000000 1.000000);
}
potential (Credential_Access | Credentials_from_Password_Stores Modify_Authentication_Process)
{
    data = (1.000000 0.000000 1.000000 0.000000 1.000000 0.000000 0.000000 1.000000);
}
potential (Resource_Development | Compromise_Infrastructure)
{
    data = (1.000000 0.000000 0.000000 1.000000);
}
potential (Defense_Evasion | Modify_Authentication_Process)
{
    data = (1.000000 0.000000 0.000000 1.000000);
}
potential (Risk | Persistence Privilege_Escalation Lateral_Movement Initial_Access Credential_Access Resource_Development Defense_Evasion)
{
    data = (1.000000 0.000000 0.000000 1.000000 0.000000 1.000000 0.000000 1.000000 0.000000 1.000000 0.000000 1.000000 0.000000 1.000000 0.000000 1.000000 0.000000 1.000000 0.000000 1.000000 0.000000 1.000000 0.000000 1.000000 0.000000 1.000000 0.000000 1.000000 0.000000 1.000000 0.000000 1.000000 0.000000 1.000000 0.000000 1.000000 0.000000 1.000000 0.000000 1.000000 0.000000 1.000000 0.000000 1.000000 0.000000 1.000000 0.000000 1.000000 0.000000 1.000000 0.000000 1.000000 0.000000 1.000000 0.000000 1.000000 0.000000 1.000000 0.000000 1.000000 0.000000 1.000000 0.000000 1.000000 0.000000 1.000000 0.000000 1.000000 0.000000 1.000000 0.000000 1.000000 0.000000 1.000000 0.000000 1.000000 0.000000 1.000000 0.000000 1.000000 0.000000 1.000000 0.000000 1.000000 0.000000 1.000000 0.000000 1.000000 0.000000 1.000000 0.000000 1.000000 0.000000 1.000000 0.000000 1.000000 0.000000 1.000000 0.000000 1.000000 0.000000 1.000000 0.000000 1.000000 0.000000 1.000000 0.000000 1.000000 0.000000 1.000000 0.000000 1.000000 0.000000 1.000000 0.000000 1.000000 0.000000 1.000000 0.000000 1.000000 0.000000 1.000000 0.000000 1.000000 0.000000 1.000000 0.000000 1.000000 0.000000 1.000000 0.000000 1.000000 0.000000 1.000000 0.000000 1.000000 0.000000 1.000000 0.000000 1.000000 0.000000 1.000000 0.000000 1.000000 0.000000 1.000000 0.000000 1.000000 0.000000 1.000000 0.000000 1.000000 0.000000 1.000000 0.000000 1.000000 0.000000 1.000000 0.000000 1.000000 0.000000 1.000000 0.000000 1.000000 0.000000 1.000000 0.000000 1.000000 0.000000 1.000000 0.000000 1.000000 0.000000 1.000000 0.000000 1.000000 0.000000 1.000000 0.000000 1.000000 0.000000 1.000000 0.000000 1.000000 0.000000 1.000000 0.000000 1.000000 0.000000 1.000000 0.000000 1.000000 0.000000 1.000000 0.000000 1.000000 0.000000 1.000000 0.000000 1.000000 0.000000 1.000000 0.000000 1.000000 0.000000 1.000000 0.000000 1.000000 0.000000 1.000000 0.000000 1.000000 0.000000 1.000000 0.000000 1.000000 0.000000 1.000000 0.000000 1.000000 0.000000 1.000000 0.000000 1.000000 0.000000 1.000000 0.000000 1.000000 0.000000 1.000000 0.000000 1.000000 0.000000 1.000000 0.000000 1.000000 0.000000 1.000000 0.000000 1.000000 0.000000 1.000000 0.000000 1.000000 0.000000 1.000000 0.000000 1.000000 0.000000 1.000000 0.000000 1.000000 0.000000 1.000000 0.000000 1.000000);
}
