net
{
}
node Adversary_in_the_Middle
{
    states = ("False" "True");
    label = "Adversary_in_the_Middle";
    position = (200 0);
}
node Acquire_Infrastructure
{
    states = ("False" "True");
    label = "Acquire_Infrastructure";
    position = (400 0);
}
node Application_Layer_Protocol
{
    states = ("False" "True");
    label = "Application_Layer_Protocol";
    position = (600 0);
}
node Content_Injection
{
    states = ("False" "True");
    label = "Content_Injection";
    position = (800 0);
}
node Application_Window_Discovery
{
    states = ("False" "True");
    label = "Application_Window_Discovery";
    position = (1000 0);
}
node Communication_Through_Removable_Media
{
    states = ("False" "True");
    label = "Communication_Through_Removable_Media";
    position = (1200 0);
}
node Active_Scanning
{
    states = ("False" "True");
    label = "Active_Scanning";
    position = (357 150);
}
node Abuse_Elevation_Control_Mechanism
{
    states = ("False" "True");
    label = "Abuse_Elevation_Control_Mechanism";
    position = (557 150);
}
node Account_Discovery
{
    states = ("False" "True");
    label = "Account_Discovery";
    position = (757 150);
}
node Command_and_Scripting_Interpreter
{
    states = ("False" "True");
    label = "Command_and_Scripting_Interpreter";
    position = (957 150);
}
node Automated_Exfiltration
{
    states = ("False" "True");
    label = "Automated_Exfiltration";
    position = (1157 150);
}
node Exploitation_of_Remote_Services
{
    states = ("False" "True");
    label = "Exploitation_of_Remote_Services";
    position = (276 300);
}
node Account_Manipulation
{
    states = ("False" "True");
    label = "Account_Manipulation";
    position = (476 300);
}
node Account_Access_Removal
{
    states = ("False" "True");
    label = "Account_Access_Removal";
    position = (676 300);
}
node Acquire_Access
{
    states = ("False" "True");
    label = "Acquire_Access";
    position = (876 300);
}
node Cloud_Administration_Command
{
    states = ("False" "True");
    label = "Cloud_Administration_Command";
    position = (1076 300);
}
node Access_Token_Manipulation
{
    states = ("False" "True");
    label = "Access_Token_Manipulation";
    position = (253 450);
}
node Credential_Access
{
    states = ("False" "True");
    label = "Credential_Access";
    position = (453 450);
}
node Collection
{
    states = ("False" "True");
    label = "Collection";
    position = (653 450);
}
node Resource_Development
{
    states = ("False" "True");
    label = "Resource_Development";
    position = (853 450);
}
node Command_And_Control
{
    states = ("False" "True");
    label = "Command_And_Control";
    position = (1053 450);
}
node Initial_Access
{
    states = ("False" "True");
    label = "Initial_Access";
    position = (342 600);
}
node Discovery
{
    states = ("False" "True");
    label = "Discovery";
    position = (542 600);
}
node Reconnaissance
{
    states = ("False" "True");
    label = "Reconnaissance";
    position = (742 600);
}
node Privilege_Escalation
{
    states = ("False" "True");
    label = "Privilege_Escalation";
    position = (942 600);
}
node Defense_Evasion
{
    states = ("False" "True");
    label = "Defense_Evasion";
    position = (1142 600);
}
node Execution
{
    states = ("False" "True");
    label = "Execution";
    position = (380 750);
}
node Exfiltration
{
    states = ("False" "True");
    label = "Exfiltration";
    position = (580 750);
}
node Lateral_Movement
{
    states = ("False" "True");
    label = "Lateral_Movement";
    position = (780 750);
}
node Persistence
{
    states = ("False" "True");
    label = "Persistence";
    position = (980 750);
}
node Impact
{
    states = ("False" "True");
    label = "Impact";
    position = (1180 750);
}
potential (Adversary_in_the_Middle | Credential_Access Collection)
{
    data = (0.500000 0.500000 0.500000 0.500000 0.500000 0.500000 0.500000 0.500000);
}
potential (Acquire_Infrastructure | Resource_Development)
{
    data = (0.500000 0.500000 0.500000 0.500000);
}
potential (Application_Layer_Protocol | Command_And_Control)
{
    data = (0.500000 0.500000 0.500000 0.500000);
}
potential (Content_Injection | Command_And_Control Initial_Access)
{
    data = (0.000000 0.000000 0.000000 0.000000 1.000000 1.000000 1.000000 1.000000);
}
potential (Application_Window_Discovery | Discovery)
{
    data = (0.500000 0.500000 0.500000 0.500000);
}
potential (Communication_Through_Removable_Media | Command_And_Control)
{
    data = (0.500000 0.500000 0.500000 0.500000);
}
potential (Active_Scanning | Reconnaissance)
{
    data = (0.000000 0.000000 1.000000 1.000000);
}
potential (Abuse_Elevation_Control_Mechanism | Privilege_Escalation Defense_Evasion)
{
    data = (0.500000 0.500000 0.500000 0.500000 0.500000 0.500000 0.500000 0.500000);
}
potential (Account_Discovery | Discovery)
{
    data = (0.500000 0.500000 0.500000 0.500000);
}
potential (Command_and_Scripting_Interpreter | Execution)
{
    data = (0.500000 0.500000 0.500000 0.500000);
}
potential (Automated_Exfiltration | Exfiltration)
{
    data = (0.000000 0.000000 1.000000 1.000000);
}
potential (Exploitation_of_Remote_Services | Lateral_Movement)
{
    data = (0.500000 0.500000 0.500000 0.500000);
}
potential (Account_Manipulation | Privilege_Escalation Persistence)
{
    data = (0.500000 0.500000 0.500000 0.500000 0.500000 0.500000 0.500000 0.500000);
}
potential (Account_Access_Removal | Impact)
{
    data = (0.500000 0.500000 0.500000 0.500000);
}
potential (Acquire_Access | Resource_Development)
{
    data = (0.500000 0.500000 0.500000 0.500000);
}
potential (Cloud_Administration_Command | Execution)
{
    data = (0.500000 0.500000 0.500000 0.500000);
}
potential (Access_Token_Manipulation | Privilege_Escalation Defense_Evasion)
{
    data = (0.500000 0.500000 0.500000 0.500000 0.500000 0.500000 0.500000 0.500000);
}
potential (Credential_Access)
{
    data = (0.500000 0.500000);
}
potential (Collection)
{
    data = (0.500000 0.500000);
}
potential (Resource_Development)
{
    data = (0.500000 0.500000);
}
potential (Command_And_Control)
{
    data = (0.500000 0.500000);
}
potential (Initial_Access)
{
    data = (0.500000 0.500000);
}
potential (Discovery)
{
    data = (0.500000 0.500000);
}
potential (Reconnaissance)
{
    data = (0.500000 0.500000);
}
potential (Privilege_Escalation)
{
    data = (0.500000 0.500000);
}
potential (Defense_Evasion)
{
    data = (0.500000 0.500000);
}
potential (Execution)
{
    data = (0.500000 0.500000);
}
potential (Exfiltration)
{
    data = (0.500000 0.500000);
}
potential (Lateral_Movement)
{
    data = (0.500000 0.500000);
}
potential (Persistence)
{
    data = (0.500000 0.500000);
}
potential (Impact)
{
    data = (0.500000 0.500000);
}
